booster[0]:
0:[f21<0.287376] yes=1,no=2,missing=1
	1:[f2<-1.34168] yes=3,no=4,missing=3
		3:[f21<-0.0465033] yes=7,no=8,missing=7
			7:leaf=-0.0411413
			8:leaf=-0.0168165
		4:[f18<0.0541038] yes=9,no=10,missing=9
			9:leaf=-0.0486026
			10:leaf=-0.0432873
	2:[f2<-1.12007] yes=5,no=6,missing=5
		5:[f19<0.514323] yes=11,no=12,missing=11
			11:leaf=-0.00154215
			12:leaf=0.0279125
		6:[f23<-0.0269176] yes=13,no=14,missing=13
			13:leaf=-0.0391427
			14:leaf=-0.0148464
booster[1]:
0:[f21<0.287376] yes=1,no=2,missing=1
	1:[f2<-1.30474] yes=3,no=4,missing=3
		3:[f21<-0.0465033] yes=7,no=8,missing=7
			7:leaf=-0.0407256
			8:leaf=-0.0184058
		4:[f23<-0.0274336] yes=9,no=10,missing=9
			9:leaf=-0.0469912
			10:leaf=-0.0290771
	2:[f2<-1.157] yes=5,no=6,missing=5
		5:[f23<-0.027484] yes=11,no=12,missing=11
			11:leaf=-0.00114219
			12:leaf=0.029407
		6:[f2<-0.344426] yes=13,no=14,missing=13
			13:leaf=-0.0242555
			14:leaf=-0.0423453
booster[2]:
0:[f18<0.883746] yes=1,no=2,missing=1
	1:[f2<-1.34168] yes=3,no=4,missing=3
		3:[f21<-0.00940569] yes=7,no=8,missing=7
			7:leaf=-0.0386349
			8:leaf=-0.00968768
		4:[f23<-0.0274894] yes=9,no=10,missing=9
			9:leaf=-0.0458335
			10:leaf=-0.0281316
	2:[f2<-1.30474] yes=5,no=6,missing=5
		5:[f23<-0.0273632] yes=11,no=12,missing=11
			11:leaf=-0.00346079
			12:leaf=0.0302068
		6:[f19<0.514323] yes=13,no=14,missing=13
			13:leaf=-0.0340366
			14:leaf=-0.00648281
booster[3]:
0:[f21<0.250278] yes=1,no=2,missing=1
	1:[f2<-1.34168] yes=3,no=4,missing=3
		3:[f21<-0.0465033] yes=7,no=8,missing=7
			7:leaf=-0.0383863
			8:leaf=-0.0166084
		4:[f18<0.0541038] yes=9,no=10,missing=9
			9:leaf=-0.0453193
			10:leaf=-0.0402171
	2:[f2<-1.30474] yes=5,no=6,missing=5
		5:[f22<0.233904] yes=11,no=12,missing=11
			11:leaf=0.00176162
			12:leaf=0.0268355
		6:[f2<-0.639908] yes=13,no=14,missing=13
			13:leaf=-0.0178382
			14:leaf=-0.0385038
booster[4]:
0:[f18<0.607199] yes=1,no=2,missing=1
	1:[f2<-1.34168] yes=3,no=4,missing=3
		3:[f21<-0.00940569] yes=7,no=8,missing=7
			7:leaf=-0.0373913
			8:leaf=-0.0101554
		4:[f23<-0.0274336] yes=9,no=10,missing=9
			9:leaf=-0.0439256
			10:leaf=-0.0289171
	2:[f2<-1.19394] yes=5,no=6,missing=5
		5:[f19<0.514323] yes=11,no=12,missing=11
			11:leaf=-0.00625752
			12:leaf=0.0268741
		6:[f19<0.514323] yes=13,no=14,missing=13
			13:leaf=-0.0357198
			14:leaf=-0.0104513
booster[5]:
0:[f21<0.435766] yes=1,no=2,missing=1
	1:[f2<-1.34168] yes=3,no=4,missing=3
		3:[f21<-0.00940569] yes=7,no=8,missing=7
			7:leaf=-0.035767
			8:leaf=-0.0104316
		4:[f23<-0.0274894] yes=9,no=10,missing=9
			9:leaf=-0.0428682
			10:leaf=-0.0229862
	2:[f2<-1.0462] yes=5,no=6,missing=5
		5:[f23<-0.0273248] yes=11,no=12,missing=11
			11:leaf=0.00187816
			12:leaf=0.02685
		6:[f19<1.63821] yes=13,no=14,missing=13
			13:leaf=-0.032482
			14:leaf=0.00204186
booster[6]:
0:[f18<0.607199] yes=1,no=2,missing=1
	1:[f2<-1.30474] yes=3,no=4,missing=3
		3:[f21<-0.0465033] yes=7,no=8,missing=7
			7:leaf=-0.037346
			8:leaf=-0.0156485
		4:[f21<-0.0465033] yes=9,no=10,missing=9
			9:leaf=-0.042783
			10:leaf=-0.0388954
	2:[f2<-1.30474] yes=5,no=6,missing=5
		5:[f23<-0.0274931] yes=11,no=12,missing=11
			11:leaf=-0.00521804
			12:leaf=0.0276861
		6:[f23<-0.0275324] yes=13,no=14,missing=13
			13:leaf=-0.0332554
			14:leaf=-0.00768356
booster[7]:
0:[f21<0.250278] yes=1,no=2,missing=1
	1:[f2<-1.30474] yes=3,no=4,missing=3
		3:[f21<-0.0465033] yes=7,no=8,missing=7
			7:leaf=-0.0354773
			8:leaf=-0.015733
		4:[f18<0.0541038] yes=9,no=10,missing=9
			9:leaf=-0.0418548
			10:leaf=-0.0373441
	2:[f2<-1.30474] yes=5,no=6,missing=5
		5:[f19<0.514323] yes=11,no=12,missing=11
			11:leaf=0.00189302
			12:leaf=0.0275378
		6:[f2<-0.824584] yes=13,no=14,missing=13
			13:leaf=-0.0146903
			14:leaf=-0.0342196
booster[8]:
0:[f21<0.21318] yes=1,no=2,missing=1
	1:[f2<-1.30474] yes=3,no=4,missing=3
		3:[f21<-0.0465033] yes=7,no=8,missing=7
			7:leaf=-0.0347172
			8:leaf=-0.0169444
		4:[f19<0.514323] yes=9,no=10,missing=9
			9:leaf=-0.04073
			10:leaf=-0.0248928
	2:[f2<-1.30474] yes=5,no=6,missing=5
		5:[f22<0.233904] yes=11,no=12,missing=11
			11:leaf=0.000823854
			12:leaf=0.0253576
		6:[f23<-0.027183] yes=13,no=14,missing=13
			13:leaf=-0.0319395
			14:leaf=-0.00700244
booster[9]:
0:[f21<0.287376] yes=1,no=2,missing=1
	1:[f2<-1.30474] yes=3,no=4,missing=3
		3:[f21<-0.0465033] yes=7,no=8,missing=7
			7:leaf=-0.0343388
			8:leaf=-0.014464
		4:[f23<-0.0268591] yes=9,no=10,missing=9
			9:leaf=-0.0399331
			10:leaf=-0.0230654
	2:[f2<-1.19394] yes=5,no=6,missing=5
		5:[f22<0.233904] yes=11,no=12,missing=11
			11:leaf=-0.00125408
			12:leaf=0.0236391
		6:[f23<-0.0271985] yes=13,no=14,missing=13
			13:leaf=-0.031504
			14:leaf=-0.0054035
booster[10]:
0:[f21<0.21318] yes=1,no=2,missing=1
	1:[f2<-1.30474] yes=3,no=4,missing=3
		3:[f21<-0.00940569] yes=7,no=8,missing=7
			7:leaf=-0.0328916
			8:leaf=-0.0128814
		4:[f23<-0.0274492] yes=9,no=10,missing=9
			9:leaf=-0.0392849
			10:leaf=-0.0231176
	2:[f2<-1.08313] yes=5,no=6,missing=5
		5:[f19<0.514323] yes=11,no=12,missing=11
			11:leaf=-0.00200433
			12:leaf=0.02365
		6:[f2<-0.307491] yes=13,no=14,missing=13
			13:leaf=-0.0222099
			14:leaf=-0.0358909
booster[11]:
0:[f18<0.607199] yes=1,no=2,missing=1
	1:[f2<-1.34168] yes=3,no=4,missing=3
		3:[f21<0.027692] yes=7,no=8,missing=7
			7:leaf=-0.0317689
			8:leaf=-0.00479046
		4:[f23<-0.0274336] yes=9,no=10,missing=9
			9:leaf=-0.0386082
			10:leaf=-0.0233539
	2:[f2<-1.30474] yes=5,no=6,missing=5
		5:[f23<-0.0274876] yes=11,no=12,missing=11
			11:leaf=-0.00522193
			12:leaf=0.0275162
		6:[f19<0.514323] yes=13,no=14,missing=13
			13:leaf=-0.0297226
			14:leaf=-0.00283392
booster[12]:
0:[f18<0.607199] yes=1,no=2,missing=1
	1:[f2<-1.37861] yes=3,no=4,missing=3
		3:[f21<-0.00940569] yes=7,no=8,missing=7
			7:leaf=-0.0310768
			8:leaf=-0.00633344
		4:[f18<0.0541038] yes=9,no=10,missing=9
			9:leaf=-0.0384042
			10:leaf=-0.033431
	2:[f2<-1.12007] yes=5,no=6,missing=5
		5:[f22<0.233904] yes=11,no=12,missing=11
			11:leaf=-0.00648516
			12:leaf=0.0217163
		6:[f19<0.514323] yes=13,no=14,missing=13
			13:leaf=-0.0309866
			14:leaf=-0.00797589
booster[13]:
0:[f18<0.607199] yes=1,no=2,missing=1
	1:[f2<-1.30474] yes=3,no=4,missing=3
		3:[f21<-0.00940569] yes=7,no=8,missing=7
			7:leaf=-0.0317836
			8:leaf=-0.00930418
		4:[f21<-0.0465033] yes=9,no=10,missing=9
			9:leaf=-0.0380014
			10:leaf=-0.0341582
	2:[f2<-1.157] yes=5,no=6,missing=5
		5:[f22<0.233904] yes=11,no=12,missing=11
			11:leaf=-0.00607711
			12:leaf=0.0222084
		6:[f19<0.514323] yes=13,no=14,missing=13
			13:leaf=-0.0298831
			14:leaf=-0.00679007
booster[14]:
0:[f18<0.607199] yes=1,no=2,missing=1
	1:[f2<-1.30474] yes=3,no=4,missing=3
		3:[f21<-0.00940569] yes=7,no=8,missing=7
			7:leaf=-0.0312764
			8:leaf=-0.00765295
		4:[f21<-0.0465033] yes=9,no=10,missing=9
			9:leaf=-0.0374954
			10:leaf=-0.0336616
	2:[f2<-1.30474] yes=5,no=6,missing=5
		5:[f19<0.514323] yes=11,no=12,missing=11
			11:leaf=-0.00339929
			12:leaf=0.025132
		6:[f23<-0.0275324] yes=13,no=14,missing=13
			13:leaf=-0.0277916
			14:leaf=-0.00536361
booster[15]:
0:[f18<0.607199] yes=1,no=2,missing=1
	1:[f2<-1.37861] yes=3,no=4,missing=3
		3:[f21<-0.0465033] yes=7,no=8,missing=7
			7:leaf=-0.0306154
			8:leaf=-0.00996313
		4:[f23<-0.0274894] yes=9,no=10,missing=9
			9:leaf=-0.0363659
			10:leaf=-0.0205428
	2:[f2<-1.12007] yes=5,no=6,missing=5
		5:[f19<0.514323] yes=11,no=12,missing=11
			11:leaf=-0.00647451
			12:leaf=0.0239892
		6:[f19<1.63821] yes=13,no=14,missing=13
			13:leaf=-0.028755
			14:leaf=0.00906169
booster[16]:
0:[f21<0.138985] yes=1,no=2,missing=1
	1:[f2<-1.157] yes=3,no=4,missing=3
		3:[f18<0.0541038] yes=7,no=8,missing=7
			7:leaf=-0.0311921
			8:leaf=-0.0167023
		4:[f18<0.0541038] yes=9,no=10,missing=9
			9:leaf=-0.0365831
			10:leaf=-0.0329484
	2:[f2<-1.37861] yes=5,no=6,missing=5
		5:[f23<-0.0275224] yes=11,no=12,missing=11
			11:leaf=0.00278828
			12:leaf=0.0268101
		6:[f2<-0.639908] yes=13,no=14,missing=13
			13:leaf=-0.0124602
			14:leaf=-0.0313422
booster[17]:
0:[f21<0.138985] yes=1,no=2,missing=1
	1:[f2<-1.37861] yes=3,no=4,missing=3
		3:[f21<-0.0465033] yes=7,no=8,missing=7
			7:leaf=-0.0286743
			8:leaf=-0.0120908
		4:[f23<-0.0274794] yes=9,no=10,missing=9
			9:leaf=-0.0354306
			10:leaf=-0.0190915
	2:[f2<-1.0462] yes=5,no=6,missing=5
		5:[f22<0.233904] yes=11,no=12,missing=11
			11:leaf=-0.00441485
			12:leaf=0.0187175
		6:[f23<-0.026721] yes=13,no=14,missing=13
			13:leaf=-0.0302931
			14:leaf=-0.00990793
booster[18]:
0:[f21<0.138985] yes=1,no=2,missing=1
	1:[f2<-1.12007] yes=3,no=4,missing=3
		3:[f23<-0.0275315] yes=7,no=8,missing=7
			7:leaf=-0.0287219
			8:leaf=0.0120843
		4:[f18<0.0541038] yes=9,no=10,missing=9
			9:leaf=-0.0356779
			10:leaf=-0.0321881
	2:[f2<-1.26781] yes=5,no=6,missing=5
		5:[f23<-0.0273504] yes=11,no=12,missing=11
			11:leaf=-0.000672319
			12:leaf=0.0238452
		6:[f2<-0.602973] yes=13,no=14,missing=13
			13:leaf=-0.0144265
			14:leaf=-0.0304927
booster[19]:
0:[f21<0.101887] yes=1,no=2,missing=1
	1:[f2<-1.30474] yes=3,no=4,missing=3
		3:[f18<0.0541038] yes=7,no=8,missing=7
			7:leaf=-0.0294119
			8:leaf=-0.0142636
		4:[f2<-0.676843] yes=9,no=10,missing=9
			9:leaf=-0.0320512
			10:leaf=-0.035213
	2:[f2<-1.08313] yes=5,no=6,missing=5
		5:[f22<0.233904] yes=11,no=12,missing=11
			11:leaf=-0.0050053
			12:leaf=0.0185778
		6:[f2<-0.0489445] yes=13,no=14,missing=13
			13:leaf=-0.0208435
			14:leaf=-0.0326259
booster[20]:
0:[f21<0.101887] yes=1,no=2,missing=1
	1:[f2<-1.12007] yes=3,no=4,missing=3
		3:[f21<-0.0465033] yes=7,no=8,missing=7
			7:leaf=-0.0296804
			8:leaf=-0.0166378
		4:[f23<-0.0274474] yes=9,no=10,missing=9
			9:leaf=-0.0345859
			10:leaf=-0.0216888
	2:[f2<-1.26781] yes=5,no=6,missing=5
		5:[f22<0.233904] yes=11,no=12,missing=11
			11:leaf=-0.00305679
			12:leaf=0.0205645
		6:[f2<-0.270556] yes=13,no=14,missing=13
			13:leaf=-0.0169205
			14:leaf=-0.0314051
booster[21]:
0:[f21<0.21318] yes=1,no=2,missing=1
	1:[f2<-1.157] yes=3,no=4,missing=3
		3:[f21<-0.0465033] yes=7,no=8,missing=7
			7:leaf=-0.0290345
			8:leaf=-0.0139274
		4:[f18<0.0541038] yes=9,no=10,missing=9
			9:leaf=-0.0343114
			10:leaf=-0.0300956
	2:[f2<-1.0462] yes=5,no=6,missing=5
		5:[f23<-0.0274025] yes=11,no=12,missing=11
			11:leaf=-0.00231972
			12:leaf=0.0219966
		6:[f23<-0.026871] yes=13,no=14,missing=13
			13:leaf=-0.0280293
			14:leaf=-0.00744155
booster[22]:
0:[f18<0.330651] yes=1,no=2,missing=1
	1:[f2<-1.37861] yes=3,no=4,missing=3
		3:[f21<-0.00940569] yes=7,no=8,missing=7
			7:leaf=-0.0267404
			8:leaf=-0.00563836
		4:[f2<-0.824584] yes=9,no=10,missing=9
			9:leaf=-0.0304892
			10:leaf=-0.0340051
	2:[f2<-1.12007] yes=5,no=6,missing=5
		5:[f22<0.233904] yes=11,no=12,missing=11
			11:leaf=-0.00695099
			12:leaf=0.0184827
		6:[f23<-0.0275041] yes=13,no=14,missing=13
			13:leaf=-0.0273197
			14:leaf=-0.00706744
booster[23]:
0:[f18<0.330651] yes=1,no=2,missing=1
	1:[f2<-1.30474] yes=3,no=4,missing=3
		3:[f21<-0.0465033] yes=7,no=8,missing=7
			7:leaf=-0.0283736
			8:leaf=-0.0114656
		4:[f21<-0.0465033] yes=9,no=10,missing=9
			9:leaf=-0.0335919
			10:leaf=-0.0301803
	2:[f2<-1.19394] yes=5,no=6,missing=5
		5:[f23<-0.0275324] yes=11,no=12,missing=11
			11:leaf=-0.0056847
			12:leaf=0.0212156
		6:[f23<-0.0271985] yes=13,no=14,missing=13
			13:leaf=-0.0267871
			14:leaf=-0.00349806
booster[24]:
0:[f18<0.607199] yes=1,no=2,missing=1
	1:[f2<-1.37861] yes=3,no=4,missing=3
		3:[f21<-0.0465033] yes=7,no=8,missing=7
			7:leaf=-0.0267457
			8:leaf=-0.0066822
		4:[f21<-0.0465033] yes=9,no=10,missing=9
			9:leaf=-0.0331048
			10:leaf=-0.028648
	2:[f2<-1.12007] yes=5,no=6,missing=5
		5:[f23<-0.0270814] yes=11,no=12,missing=11
			11:leaf=-0.00400424
			12:leaf=0.020147
		6:[f23<-0.0274565] yes=13,no=14,missing=13
			13:leaf=-0.0254219
			14:leaf=-0.0043865
booster[25]:
0:[f21<0.0647896] yes=1,no=2,missing=1
	1:[f2<-1.30474] yes=3,no=4,missing=3
		3:[f16<-0.252381] yes=7,no=8,missing=7
			7:leaf=-0.0281698
			8:leaf=-0.0169334
		4:[f18<0.0541038] yes=9,no=10,missing=9
			9:leaf=-0.0329024
			10:leaf=-0.0290634
	2:[f2<-1.08313] yes=5,no=6,missing=5
		5:[f23<-0.0274867] yes=11,no=12,missing=11
			11:leaf=-0.00479253
			12:leaf=0.0186878
		6:[f2<-0.270556] yes=13,no=14,missing=13
			13:leaf=-0.017792
			14:leaf=-0.029774
booster[26]:
0:[f18<0.330651] yes=1,no=2,missing=1
	1:[f2<-1.34168] yes=3,no=4,missing=3
		3:[f21<-0.0465033] yes=7,no=8,missing=7
			7:leaf=-0.0269778
			8:leaf=-0.00866721
		4:[f2<-0.824584] yes=9,no=10,missing=9
			9:leaf=-0.029273
			10:leaf=-0.0326748
	2:[f2<-1.12007] yes=5,no=6,missing=5
		5:[f23<-0.027484] yes=11,no=12,missing=11
			11:leaf=-0.00552632
			12:leaf=0.018317
		6:[f23<-0.0274904] yes=13,no=14,missing=13
			13:leaf=-0.0259033
			14:leaf=-0.00592927
booster[27]:
0:[f18<0.330651] yes=1,no=2,missing=1
	1:[f2<-1.30474] yes=3,no=4,missing=3
		3:[f21<-0.0465033] yes=7,no=8,missing=7
			7:leaf=-0.0268872
			8:leaf=-0.0101706
		4:[f23<-0.0274364] yes=9,no=10,missing=9
			9:leaf=-0.0319173
			10:leaf=-0.0183374
	2:[f2<-1.12007] yes=5,no=6,missing=5
		5:[f19<0.514323] yes=11,no=12,missing=11
			11:leaf=-0.0064463
			12:leaf=0.0195015
		6:[f19<0.514323] yes=13,no=14,missing=13
			13:leaf=-0.0256998
			14:leaf=-0.00468003
booster[28]:
0:[f21<0.176083] yes=1,no=2,missing=1
	1:[f2<-1.30474] yes=3,no=4,missing=3
		3:[f18<0.0541038] yes=7,no=8,missing=7
			7:leaf=-0.0256026
			8:leaf=-0.0108268
		4:[f18<0.0541038] yes=9,no=10,missing=9
			9:leaf=-0.0318308
			10:leaf=-0.0270271
	2:[f2<-1.37861] yes=5,no=6,missing=5
		5:[f22<0.233904] yes=11,no=12,missing=11
			11:leaf=0.00221522
			12:leaf=0.0221127
		6:[f2<-0.307491] yes=13,no=14,missing=13
			13:leaf=-0.010695
			14:leaf=-0.027506
booster[29]:
0:[f21<0.0647896] yes=1,no=2,missing=1
	1:[f2<-1.37861] yes=3,no=4,missing=3
		3:[f19<0.514323] yes=7,no=8,missing=7
			7:leaf=-0.021889
			8:leaf=0.0214266
		4:[f18<0.0541038] yes=9,no=10,missing=9
			9:leaf=-0.0315352
			10:leaf=-0.0268925
	2:[f2<-1.08313] yes=5,no=6,missing=5
		5:[f22<0.233904] yes=11,no=12,missing=11
			11:leaf=-0.00340782
			12:leaf=0.0172627
		6:[f2<-0.0489445] yes=13,no=14,missing=13
			13:leaf=-0.0175592
			14:leaf=-0.02915
booster[30]:
0:[f21<0.101887] yes=1,no=2,missing=1
	1:[f2<-1.0462] yes=3,no=4,missing=3
		3:[f18<0.0541038] yes=7,no=8,missing=7
			7:leaf=-0.0264361
			8:leaf=-0.01378
		4:[f3<1.01952] yes=9,no=10,missing=9
			9:leaf=-0.0315176
			10:leaf=-0.0273609
	2:[f2<-1.34168] yes=5,no=6,missing=5
		5:[f22<0.233904] yes=11,no=12,missing=11
			11:leaf=0.000176803
			12:leaf=0.0191606
		6:[f2<-0.344426] yes=13,no=14,missing=13
			13:leaf=-0.011713
			14:leaf=-0.0270393
booster[31]:
0:[f18<0.330651] yes=1,no=2,missing=1
	1:[f2<-1.30474] yes=3,no=4,missing=3
		3:[f21<-0.0465033] yes=7,no=8,missing=7
			7:leaf=-0.0256311
			8:leaf=-0.00864613
		4:[f2<-0.824584] yes=9,no=10,missing=9
			9:leaf=-0.0273856
			10:leaf=-0.0311522
	2:[f2<-1.37861] yes=5,no=6,missing=5
		5:[f22<0.233904] yes=11,no=12,missing=11
			11:leaf=-0.00067716
			12:leaf=0.0203041
		6:[f19<0.514323] yes=13,no=14,missing=13
			13:leaf=-0.0217005
			14:leaf=0.000110617
booster[32]:
0:[f21<0.101887] yes=1,no=2,missing=1
	1:[f2<-1.30474] yes=3,no=4,missing=3
		3:[f17<-0.145753] yes=7,no=8,missing=7
			7:leaf=-0.0257026
			8:leaf=-0.0135729
		4:[f18<0.0541038] yes=9,no=10,missing=9
			9:leaf=-0.0307452
			10:leaf=-0.0259101
	2:[f2<-1.0462] yes=5,no=6,missing=5
		5:[f23<-0.0274025] yes=11,no=12,missing=11
			11:leaf=-0.00314162
			12:leaf=0.0178064
		6:[f2<-0.0489445] yes=13,no=14,missing=13
			13:leaf=-0.016502
			14:leaf=-0.0281161
booster[33]:
0:[f18<0.607199] yes=1,no=2,missing=1
	1:[f2<-1.30474] yes=3,no=4,missing=3
		3:[f21<-0.0465033] yes=7,no=8,missing=7
			7:leaf=-0.0246073
			8:leaf=-0.00673528
		4:[f21<-0.0465033] yes=9,no=10,missing=9
			9:leaf=-0.030584
			10:leaf=-0.0260979
	2:[f2<-1.0462] yes=5,no=6,missing=5
		5:[f19<0.514323] yes=11,no=12,missing=11
			11:leaf=-0.00417125
			12:leaf=0.0196098
		6:[f2<-0.307491] yes=13,no=14,missing=13
			13:leaf=-0.0127647
			14:leaf=-0.0256753
booster[34]:
0:[f21<0.0647896] yes=1,no=2,missing=1
	1:[f2<-1.12007] yes=3,no=4,missing=3
		3:[f21<-0.083601] yes=7,no=8,missing=7
			7:leaf=-0.0263189
			8:leaf=-0.0161315
		4:[f19<0.514323] yes=9,no=10,missing=9
			9:leaf=-0.0302128
			10:leaf=-0.0146063
	2:[f2<-1.0462] yes=5,no=6,missing=5
		5:[f23<-0.0274876] yes=11,no=12,missing=11
			11:leaf=-0.0036788
			12:leaf=0.0171262
		6:[f23<-0.0273257] yes=13,no=14,missing=13
			13:leaf=-0.0243853
			14:leaf=-0.00539893
booster[35]:
0:[f18<0.330651] yes=1,no=2,missing=1
	1:[f2<-1.34168] yes=3,no=4,missing=3
		3:[f21<-0.083601] yes=7,no=8,missing=7
			7:leaf=-0.025844
			8:leaf=-0.0115585
		4:[f23<-0.0274336] yes=9,no=10,missing=9
			9:leaf=-0.0296326
			10:leaf=-0.0135145
	2:[f2<-1.37861] yes=5,no=6,missing=5
		5:[f15<0.313696] yes=11,no=12,missing=11
			11:leaf=-0.0057402
			12:leaf=0.0147234
		6:[f19<0.514323] yes=13,no=14,missing=13
			13:leaf=-0.0208168
			14:leaf=0.00104059
booster[36]:
0:[f21<0.0647896] yes=1,no=2,missing=1
	1:[f2<-1.0462] yes=3,no=4,missing=3
		3:[f19<0.514323] yes=7,no=8,missing=7
			7:leaf=-0.0229019
			8:leaf=0.0143177
		4:[f3<1.67772] yes=9,no=10,missing=9
			9:leaf=-0.0299549
			10:leaf=-0.0240689
	2:[f2<-0.861519] yes=5,no=6,missing=5
		5:[f22<0.233904] yes=11,no=12,missing=11
			11:leaf=-0.00472233
			12:leaf=0.0151651
		6:[f2<0.246537] yes=13,no=14,missing=13
			13:leaf=-0.0193216
			14:leaf=-0.0284809
booster[37]:
0:[f18<0.330651] yes=1,no=2,missing=1
	1:[f2<-1.0462] yes=3,no=4,missing=3
		3:[f21<-0.0465033] yes=7,no=8,missing=7
			7:leaf=-0.0251667
			8:leaf=-0.0104095
		4:[f23<-0.027387] yes=9,no=10,missing=9
			9:leaf=-0.0295698
			10:leaf=-0.0176517
	2:[f2<-1.37861] yes=5,no=6,missing=5
		5:[f15<0.213168] yes=11,no=12,missing=11
			11:leaf=-0.0062054
			12:leaf=0.0120493
		6:[f2<-0.307491] yes=13,no=14,missing=13
			13:leaf=-0.0110783
			14:leaf=-0.0265832
booster[38]:
0:[f18<0.330651] yes=1,no=2,missing=1
	1:[f2<-1.30474] yes=3,no=4,missing=3
		3:[f21<-0.0465033] yes=7,no=8,missing=7
			7:leaf=-0.023067
			8:leaf=-0.00776957
		4:[f23<-0.0274364] yes=9,no=10,missing=9
			9:leaf=-0.0289648
			10:leaf=-0.0132435
	2:[f2<-1.0462] yes=5,no=6,missing=5
		5:[f23<-0.0274876] yes=11,no=12,missing=11
			11:leaf=-0.0051898
			12:leaf=0.0171133
		6:[f2<-0.0489445] yes=13,no=14,missing=13
			13:leaf=-0.0154874
			14:leaf=-0.0273422
booster[39]:
0:[f21<0.0647896] yes=1,no=2,missing=1
	1:[f2<-1.157] yes=3,no=4,missing=3
		3:[f15<-0.170228] yes=7,no=8,missing=7
			7:leaf=-0.0246292
			8:leaf=-0.013444
		4:[f3<1.82221] yes=9,no=10,missing=9
			9:leaf=-0.0291237
			10:leaf=-0.0217857
	2:[f2<-1.0462] yes=5,no=6,missing=5
		5:[f22<0.233904] yes=11,no=12,missing=11
			11:leaf=-0.00316204
			12:leaf=0.0154117
		6:[f2<-0.0489445] yes=13,no=14,missing=13
			13:leaf=-0.0146096
			14:leaf=-0.0264161
booster[40]:
0:[f21<0.027692] yes=1,no=2,missing=1
	1:[f2<-1.34168] yes=3,no=4,missing=3
		3:[f17<-0.145753] yes=7,no=8,missing=7
			7:leaf=-0.0235227
			8:leaf=-0.0111151
		4:[f2<-0.492167] yes=9,no=10,missing=9
			9:leaf=-0.0259396
			10:leaf=-0.0293583
	2:[f2<-1.0462] yes=5,no=6,missing=5
		5:[f23<-0.0274775] yes=11,no=12,missing=11
			11:leaf=-0.00389493
			12:leaf=0.0165575
		6:[f2<-0.0120093] yes=13,no=14,missing=13
			13:leaf=-0.01558
			14:leaf=-0.0263846
booster[41]:
0:[f21<0.0647896] yes=1,no=2,missing=1
	1:[f2<-1.12007] yes=3,no=4,missing=3
		3:[f21<-0.083601] yes=7,no=8,missing=7
			7:leaf=-0.0243
			8:leaf=-0.0136216
		4:[f23<-0.0274336] yes=9,no=10,missing=9
			9:leaf=-0.0286324
			10:leaf=-0.0145423
	2:[f2<-1.0462] yes=5,no=6,missing=5
		5:[f22<0.233904] yes=11,no=12,missing=11
			11:leaf=-0.00365398
			12:leaf=0.0153315
		6:[f19<1.63821] yes=13,no=14,missing=13
			13:leaf=-0.02102
			14:leaf=0.0238225
booster[42]:
0:[f18<0.330651] yes=1,no=2,missing=1
	1:[f2<-1.34168] yes=3,no=4,missing=3
		3:[f21<-0.083601] yes=7,no=8,missing=7
			7:leaf=-0.0236564
			8:leaf=-0.00883573
		4:[f23<-0.0274336] yes=9,no=10,missing=9
			9:leaf=-0.0280848
			10:leaf=-0.0111912
	2:[f2<-0.639908] yes=5,no=6,missing=5
		5:[f22<0.233904] yes=11,no=12,missing=11
			11:leaf=-0.00724257
			12:leaf=0.0137201
		6:[f19<0.514323] yes=13,no=14,missing=13
			13:leaf=-0.0240014
			14:leaf=-0.00753991
booster[43]:
0:[f18<0.330651] yes=1,no=2,missing=1
	1:[f2<-1.30474] yes=3,no=4,missing=3
		3:[f21<-0.0465033] yes=7,no=8,missing=7
			7:leaf=-0.0219351
			8:leaf=-0.00640791
		4:[f23<-0.0274336] yes=9,no=10,missing=9
			9:leaf=-0.0279327
			10:leaf=-0.0108776
	2:[f2<-1.00926] yes=5,no=6,missing=5
		5:[f23<-0.0273632] yes=11,no=12,missing=11
			11:leaf=-0.00480692
			12:leaf=0.0170223
		6:[f19<0.514323] yes=13,no=14,missing=13
			13:leaf=-0.0213351
			14:leaf=-0.00180769
booster[44]:
0:[f18<0.0541038] yes=1,no=2,missing=1
	1:[f2<-1.37861] yes=3,no=4,missing=3
		3:[f21<-0.083601] yes=7,no=8,missing=7
			7:leaf=-0.0235011
			8:leaf=-0.00839891
		4:[f2<-0.824584] yes=9,no=10,missing=9
			9:leaf=-0.0248607
			10:leaf=-0.0285964
	2:[f2<-0.824584] yes=5,no=6,missing=5
		5:[f22<0.233904] yes=11,no=12,missing=11
			11:leaf=-0.00835252
			12:leaf=0.013313
		6:[f23<-0.027483] yes=13,no=14,missing=13
			13:leaf=-0.0240317
			14:leaf=-0.00831159
booster[45]:
0:[f21<0.101887] yes=1,no=2,missing=1
	1:[f2<-1.30474] yes=3,no=4,missing=3
		3:[f23<-0.0275324] yes=7,no=8,missing=7
			7:leaf=-0.0179696
			8:leaf=0.0198129
		4:[f18<0.0541038] yes=9,no=10,missing=9
			9:leaf=-0.0279481
			10:leaf=-0.0223771
	2:[f2<-0.861519] yes=5,no=6,missing=5
		5:[f23<-0.0275123] yes=11,no=12,missing=11
			11:leaf=-0.00265762
			12:leaf=0.0164488
		6:[f3<0.762661] yes=13,no=14,missing=13
			13:leaf=-0.0237467
			14:leaf=-0.012149
booster[46]:
0:[f18<0.330651] yes=1,no=2,missing=1
	1:[f2<-1.30474] yes=3,no=4,missing=3
		3:[f22<0.233904] yes=7,no=8,missing=7
			7:leaf=-0.018176
			8:leaf=0.0239139
		4:[f21<-0.0465033] yes=9,no=10,missing=9
			9:leaf=-0.0279311
			10:leaf=-0.0229631
	2:[f2<-1.41555] yes=5,no=6,missing=5
		5:[f15<0.299542] yes=11,no=12,missing=11
			11:leaf=-0.00288596
			12:leaf=0.0146125
		6:[f23<-0.0275224] yes=13,no=14,missing=13
			13:leaf=-0.0169582
			14:leaf=0.00256922
booster[47]:
0:[f18<0.330651] yes=1,no=2,missing=1
	1:[f2<-1.37861] yes=3,no=4,missing=3
		3:[f21<-0.083601] yes=7,no=8,missing=7
			7:leaf=-0.0217513
			8:leaf=-0.00510651
		4:[f2<-0.861519] yes=9,no=10,missing=9
			9:leaf=-0.0229004
			10:leaf=-0.0277311
	2:[f2<-1.37861] yes=5,no=6,missing=5
		5:[f15<0.234618] yes=11,no=12,missing=11
			11:leaf=-0.00350262
			12:leaf=0.0124725
		6:[f19<0.514323] yes=13,no=14,missing=13
			13:leaf=-0.0173481
			14:leaf=0.00321393
booster[48]:
0:[f21<0.027692] yes=1,no=2,missing=1
	1:[f2<-1.0462] yes=3,no=4,missing=3
		3:[f19<0.514323] yes=7,no=8,missing=7
			7:leaf=-0.0200238
			8:leaf=0.0171979
		4:[f3<0.537908] yes=9,no=10,missing=9
			9:leaf=-0.0278782
			10:leaf=-0.0234473
	2:[f2<-0.824584] yes=5,no=6,missing=5
		5:[f22<0.233904] yes=11,no=12,missing=11
			11:leaf=-0.00466097
			12:leaf=0.0136956
		6:[f23<-0.0267027] yes=13,no=14,missing=13
			13:leaf=-0.0222336
			14:leaf=-0.00456571
booster[49]:
0:[f18<0.330651] yes=1,no=2,missing=1
	1:[f2<-1.12007] yes=3,no=4,missing=3
		3:[f21<-0.0465033] yes=7,no=8,missing=7
			7:leaf=-0.0217474
			8:leaf=-0.00655849
		4:[f17<-0.145753] yes=9,no=10,missing=9
			9:leaf=-0.027802
			10:leaf=-0.0241527
	2:[f2<-1.41555] yes=5,no=6,missing=5
		5:[f15<0.281926] yes=11,no=12,missing=11
			11:leaf=-0.0036389
			12:leaf=0.0138522
		6:[f23<-0.0275013] yes=13,no=14,missing=13
			13:leaf=-0.0164405
			14:leaf=0.00408756
booster[50]:
0:[f21<0.0647896] yes=1,no=2,missing=1
	1:[f2<-0.861519] yes=3,no=4,missing=3
		3:[f17<-0.145753] yes=7,no=8,missing=7
			7:leaf=-0.0231098
			8:leaf=-0.0132386
		4:[f3<0.409478] yes=9,no=10,missing=9
			9:leaf=-0.0278062
			10:leaf=-0.024319
	2:[f2<-0.639908] yes=5,no=6,missing=5
		5:[f23<-0.0275123] yes=11,no=12,missing=11
			11:leaf=-0.00347482
			12:leaf=0.0148896
		6:[f23<-0.0264447] yes=13,no=14,missing=13
			13:leaf=-0.0229005
			14:leaf=-0.00699925
booster[51]:
0:[f21<0.0647896] yes=1,no=2,missing=1
	1:[f2<-1.0462] yes=3,no=4,missing=3
		3:[f21<-0.083601] yes=7,no=8,missing=7
			7:leaf=-0.0223385
			8:leaf=-0.0117875
		4:[f23<-0.0274053] yes=9,no=10,missing=9
			9:leaf=-0.0269585
			10:leaf=-0.0107354
	2:[f2<-0.676843] yes=5,no=6,missing=5
		5:[f22<0.233904] yes=11,no=12,missing=11
			11:leaf=-0.00437809
			12:leaf=0.0123147
		6:[f2<0.246537] yes=13,no=14,missing=13
			13:leaf=-0.016074
			14:leaf=-0.0251167
booster[52]:
0:[f21<0.027692] yes=1,no=2,missing=1
	1:[f2<-1.12007] yes=3,no=4,missing=3
		3:[f15<-0.168179] yes=7,no=8,missing=7
			7:leaf=-0.0218167
			8:leaf=-0.0113187
		4:[f3<0.537908] yes=9,no=10,missing=9
			9:leaf=-0.0271329
			10:leaf=-0.0224654
	2:[f2<-0.750713] yes=5,no=6,missing=5
		5:[f2<-1.45248] yes=11,no=12,missing=11
			11:leaf=0.00855592
			12:leaf=-0.00602348
		6:[f3<0.762661] yes=13,no=14,missing=13
			13:leaf=-0.0231452
			14:leaf=-0.012441
booster[53]:
0:[f18<0.330651] yes=1,no=2,missing=1
	1:[f2<-1.30474] yes=3,no=4,missing=3
		3:[f22<0.233904] yes=7,no=8,missing=7
			7:leaf=-0.016494
			8:leaf=0.020885
		4:[f21<-0.0465033] yes=9,no=10,missing=9
			9:leaf=-0.0268535
			10:leaf=-0.0216955
	2:[f2<-0.307491] yes=5,no=6,missing=5
		5:[f19<0.514323] yes=11,no=12,missing=11
			11:leaf=-0.00533074
			12:leaf=0.014831
		6:[f26<0.710185] yes=13,no=14,missing=13
			13:leaf=-0.0237398
			14:leaf=-0.011374
booster[54]:
0:[f18<0.0541038] yes=1,no=2,missing=1
	1:[f2<-1.0462] yes=3,no=4,missing=3
		3:[f21<-0.0465033] yes=7,no=8,missing=7
			7:leaf=-0.0219392
			8:leaf=-0.00877178
		4:[f3<1.93458] yes=9,no=10,missing=9
			9:leaf=-0.0269058
			10:leaf=-0.019639
	2:[f2<-0.824584] yes=5,no=6,missing=5
		5:[f22<0.233904] yes=11,no=12,missing=11
			11:leaf=-0.006463
			12:leaf=0.0132258
		6:[f23<-0.0274583] yes=13,no=14,missing=13
			13:leaf=-0.0218482
			14:leaf=-0.0058857
booster[55]:
0:[f18<0.0541038] yes=1,no=2,missing=1
	1:[f2<-1.30474] yes=3,no=4,missing=3
		3:[f21<-0.083601] yes=7,no=8,missing=7
			7:leaf=-0.0221812
			8:leaf=-0.00835531
		4:[f21<-0.083601] yes=9,no=10,missing=9
			9:leaf=-0.0270617
			10:leaf=-0.02394
	2:[f2<-0.861519] yes=5,no=6,missing=5
		5:[f23<-0.0275324] yes=11,no=12,missing=11
			11:leaf=-0.00614818
			12:leaf=0.0131402
		6:[f19<0.514323] yes=13,no=14,missing=13
			13:leaf=-0.0213672
			14:leaf=-0.00407202
booster[56]:
0:[f18<0.0541038] yes=1,no=2,missing=1
	1:[f2<-1.08313] yes=3,no=4,missing=3
		3:[f21<-0.083601] yes=7,no=8,missing=7
			7:leaf=-0.022643
			8:leaf=-0.0112676
		4:[f3<1.5814] yes=9,no=10,missing=9
			9:leaf=-0.026662
			10:leaf=-0.019801
	2:[f2<-0.824584] yes=5,no=6,missing=5
		5:[f22<0.233904] yes=11,no=12,missing=11
			11:leaf=-0.00612593
			12:leaf=0.012263
		6:[f23<-0.0274904] yes=13,no=14,missing=13
			13:leaf=-0.0211091
			14:leaf=-0.00233368
booster[57]:
0:[f18<0.0541038] yes=1,no=2,missing=1
	1:[f2<-1.37861] yes=3,no=4,missing=3
		3:[f16<-0.239137] yes=7,no=8,missing=7
			7:leaf=-0.0188253
			8:leaf=-0.00454401
		4:[f2<-0.529102] yes=9,no=10,missing=9
			9:leaf=-0.0229513
			10:leaf=-0.0268195
	2:[f2<-0.750713] yes=5,no=6,missing=5
		5:[f23<-0.0274602] yes=11,no=12,missing=11
			11:leaf=-0.00614992
			12:leaf=0.0133062
		6:[f23<-0.0274904] yes=13,no=14,missing=13
			13:leaf=-0.0213171
			14:leaf=-0.00412817
booster[58]:
0:[f2<-1.37861] yes=1,no=2,missing=1
	1:[f15<-0.132811] yes=3,no=4,missing=3
		3:[f21<-0.083601] yes=7,no=8,missing=7
			7:leaf=-0.0215924
			8:leaf=-0.0104046
		4:[f22<0.233904] yes=9,no=10,missing=9
			9:leaf=-0.000163073
			10:leaf=0.0186905
	2:[f18<0.0541038] yes=5,no=6,missing=5
		5:[f2<-0.529102] yes=11,no=12,missing=11
			11:leaf=-0.0225168
			12:leaf=-0.0266387
		6:[f2<-0.270556] yes=13,no=14,missing=13
			13:leaf=-0.0105984
			14:leaf=-0.022791
booster[59]:
0:[f21<0.027692] yes=1,no=2,missing=1
	1:[f2<-1.0462] yes=3,no=4,missing=3
		3:[f34<1.047] yes=7,no=8,missing=7
			7:leaf=-0.0192164
			8:leaf=-0.00521649
		4:[f17<-0.145753] yes=9,no=10,missing=9
			9:leaf=-0.0265041
			10:leaf=-0.0227897
	2:[f2<-0.639908] yes=5,no=6,missing=5
		5:[f22<0.816064] yes=11,no=12,missing=11
			11:leaf=-0.00288566
			12:leaf=0.0169217
		6:[f2<0.246537] yes=13,no=14,missing=13
			13:leaf=-0.0140013
			14:leaf=-0.0241999
booster[60]:
0:[f21<0.027692] yes=1,no=2,missing=1
	1:[f2<-1.12007] yes=3,no=4,missing=3
		3:[f16<-0.242787] yes=7,no=8,missing=7
			7:leaf=-0.0201259
			8:leaf=-0.00808464
		4:[f3<0.489747] yes=9,no=10,missing=9
			9:leaf=-0.0260157
			10:leaf=-0.0207128
	2:[f2<-0.639908] yes=5,no=6,missing=5
		5:[f23<-0.02744] yes=11,no=12,missing=11
			11:leaf=-0.00261545
			12:leaf=0.0137857
		6:[f2<0.246537] yes=13,no=14,missing=13
			13:leaf=-0.0140533
			14:leaf=-0.0238182
booster[61]:
0:[f18<0.0541038] yes=1,no=2,missing=1
	1:[f2<-1.37861] yes=3,no=4,missing=3
		3:[f21<-0.083601] yes=7,no=8,missing=7
			7:leaf=-0.0195403
			8:leaf=-0.00404725
		4:[f2<-0.529102] yes=9,no=10,missing=9
			9:leaf=-0.0219947
			10:leaf=-0.0262583
	2:[f2<-0.713778] yes=5,no=6,missing=5
		5:[f22<0.233904] yes=11,no=12,missing=11
			11:leaf=-0.00568359
			12:leaf=0.0116884
		6:[f19<0.514323] yes=13,no=14,missing=13
			13:leaf=-0.0208555
			14:leaf=-0.00422516
booster[62]:
0:[f21<0.027692] yes=1,no=2,missing=1
	1:[f2<-1.0462] yes=3,no=4,missing=3
		3:[f17<-0.145753] yes=7,no=8,missing=7
			7:leaf=-0.0203972
			8:leaf=-0.00936466
		4:[f3<1.03557] yes=9,no=10,missing=9
			9:leaf=-0.0257088
			10:leaf=-0.0194167
	2:[f2<-1.41555] yes=5,no=6,missing=5
		5:[f15<-0.155165] yes=11,no=12,missing=11
			11:leaf=-0.00949991
			12:leaf=0.00926443
		6:[f19<1.63821] yes=13,no=14,missing=13
			13:leaf=-0.0135364
			14:leaf=0.0237607
booster[63]:
0:[f18<0.0541038] yes=1,no=2,missing=1
	1:[f2<-1.0462] yes=3,no=4,missing=3
		3:[f21<-0.083601] yes=7,no=8,missing=7
			7:leaf=-0.0214059
			8:leaf=-0.00974331
		4:[f34<1.047] yes=9,no=10,missing=9
			9:leaf=-0.0259517
			10:leaf=-0.0218553
	2:[f2<-0.639908] yes=5,no=6,missing=5
		5:[f22<0.233904] yes=11,no=12,missing=11
			11:leaf=-0.00613251
			12:leaf=0.0111308
		6:[f26<0.710185] yes=13,no=14,missing=13
			13:leaf=-0.0201313
			14:leaf=-0.0042042
booster[64]:
0:[f21<0.027692] yes=1,no=2,missing=1
	1:[f2<-1.0462] yes=3,no=4,missing=3
		3:[f19<0.514323] yes=7,no=8,missing=7
			7:leaf=-0.0167045
			8:leaf=0.0190794
		4:[f3<1.82221] yes=9,no=10,missing=9
			9:leaf=-0.0253206
			10:leaf=-0.015416
	2:[f2<-0.787649] yes=5,no=6,missing=5
		5:[f26<0.710185] yes=11,no=12,missing=11
			11:leaf=-0.0020031
			12:leaf=0.0137049
		6:[f3<0.923198] yes=13,no=14,missing=13
			13:leaf=-0.0198948
			14:leaf=-0.00623643
booster[65]:
0:[f18<0.0541038] yes=1,no=2,missing=1
	1:[f2<-1.00926] yes=3,no=4,missing=3
		3:[f21<-0.083601] yes=7,no=8,missing=7
			7:leaf=-0.0208989
			8:leaf=-0.00980026
		4:[f26<0.710185] yes=9,no=10,missing=9
			9:leaf=-0.0255514
			10:leaf=-0.0158093
	2:[f2<-1.41555] yes=5,no=6,missing=5
		5:[f15<-0.0716658] yes=11,no=12,missing=11
			11:leaf=-0.00864246
			12:leaf=0.0105223
		6:[f19<0.514323] yes=13,no=14,missing=13
			13:leaf=-0.0154378
			14:leaf=0.0036082
booster[66]:
0:[f18<0.0541038] yes=1,no=2,missing=1
	1:[f2<-1.30474] yes=3,no=4,missing=3
		3:[f21<-0.083601] yes=7,no=8,missing=7
			7:leaf=-0.0195886
			8:leaf=-0.0053619
		4:[f2<-0.492167] yes=9,no=10,missing=9
			9:leaf=-0.0215964
			10:leaf=-0.025656
	2:[f2<-0.639908] yes=5,no=6,missing=5
		5:[f23<-0.0274675] yes=11,no=12,missing=11
			11:leaf=-0.00518667
			12:leaf=0.0130081
		6:[f19<0.514323] yes=13,no=14,missing=13
			13:leaf=-0.020339
			14:leaf=-0.00196843
booster[67]:
0:[f18<0.0541038] yes=1,no=2,missing=1
	1:[f2<-1.0462] yes=3,no=4,missing=3
		3:[f21<-0.0465033] yes=7,no=8,missing=7
			7:leaf=-0.0193914
			8:leaf=-0.00495019
		4:[f3<0.923198] yes=9,no=10,missing=9
			9:leaf=-0.0253001
			10:leaf=-0.0193561
	2:[f2<-0.307491] yes=5,no=6,missing=5
		5:[f26<0.710185] yes=11,no=12,missing=11
			11:leaf=-0.00597757
			12:leaf=0.0131438
		6:[f3<1.93458] yes=13,no=14,missing=13
			13:leaf=-0.0218835
			14:leaf=-0.0111724
booster[68]:
0:[f18<0.0541038] yes=1,no=2,missing=1
	1:[f2<-1.00926] yes=3,no=4,missing=3
		3:[f21<-0.083601] yes=7,no=8,missing=7
			7:leaf=-0.0205545
			8:leaf=-0.00874528
		4:[f3<0.45764] yes=9,no=10,missing=9
			9:leaf=-0.0254401
			10:leaf=-0.020468
	2:[f2<-0.676843] yes=5,no=6,missing=5
		5:[f23<-0.0269817] yes=11,no=12,missing=11
			11:leaf=-0.00463787
			12:leaf=0.0118526
		6:[f19<0.514323] yes=13,no=14,missing=13
			13:leaf=-0.0196463
			14:leaf=-0.0033643
booster[69]:
0:[f21<-0.00940569] yes=1,no=2,missing=1
	1:[f2<-1.0462] yes=3,no=4,missing=3
		3:[f16<-0.183071] yes=7,no=8,missing=7
			7:leaf=-0.0182319
			8:leaf=-0.00593456
		4:[f3<1.00347] yes=9,no=10,missing=9
			9:leaf=-0.0249632
			10:leaf=-0.0178802
	2:[f2<-0.639908] yes=5,no=6,missing=5
		5:[f22<0.816064] yes=11,no=12,missing=11
			11:leaf=-0.00216648
			12:leaf=0.0165352
		6:[f3<1.72588] yes=13,no=14,missing=13
			13:leaf=-0.0198618
			14:leaf=-0.00470017
booster[70]:
0:[f2<-1.30474] yes=1,no=2,missing=1
	1:[f15<-0.0350418] yes=3,no=4,missing=3
		3:[f17<-0.145753] yes=7,no=8,missing=7
			7:leaf=-0.0194527
			8:leaf=-0.00754973
		4:[f2<-1.45248] yes=9,no=10,missing=9
			9:leaf=0.00974402
			10:leaf=-0.00370784
	2:[f17<0.0725664] yes=5,no=6,missing=5
		5:[f21<-0.083601] yes=11,no=12,missing=11
			11:leaf=-0.0252342
			12:leaf=-0.0208502
		6:[f26<0.710185] yes=13,no=14,missing=13
			13:leaf=-0.0154227
			14:leaf=0.00400433
booster[71]:
0:[f2<-1.12007] yes=1,no=2,missing=1
	1:[f16<-0.143284] yes=3,no=4,missing=3
		3:[f26<0.710185] yes=7,no=8,missing=7
			7:leaf=-0.016665
			8:leaf=0.0102993
		4:[f2<-1.45248] yes=9,no=10,missing=9
			9:leaf=0.00900462
			10:leaf=-0.00428733
	2:[f17<0.0725664] yes=5,no=6,missing=5
		5:[f21<-0.083601] yes=11,no=12,missing=11
			11:leaf=-0.0253491
			12:leaf=-0.0218364
		6:[f2<-0.0858797] yes=13,no=14,missing=13
			13:leaf=-0.00872561
			14:leaf=-0.021065
booster[72]:
0:[f2<-1.34168] yes=1,no=2,missing=1
	1:[f15<-0.166614] yes=3,no=4,missing=3
		3:[f34<1.047] yes=7,no=8,missing=7
			7:leaf=-0.0171183
			8:leaf=0.000183299
		4:[f23<-0.0275324] yes=9,no=10,missing=9
			9:leaf=0.000393818
			10:leaf=0.0172173
	2:[f18<0.0541038] yes=5,no=6,missing=5
		5:[f2<-0.307491] yes=11,no=12,missing=11
			11:leaf=-0.0207135
			12:leaf=-0.0251715
		6:[f2<-0.270556] yes=13,no=14,missing=13
			13:leaf=-0.00831159
			14:leaf=-0.0204629
booster[73]:
0:[f18<0.0541038] yes=1,no=2,missing=1
	1:[f2<-0.972325] yes=3,no=4,missing=3
		3:[f21<-0.083601] yes=7,no=8,missing=7
			7:leaf=-0.0199494
			8:leaf=-0.0076944
		4:[f21<-0.083601] yes=9,no=10,missing=9
			9:leaf=-0.0253032
			10:leaf=-0.0217702
	2:[f2<-0.824584] yes=5,no=6,missing=5
		5:[f19<0.514323] yes=11,no=12,missing=11
			11:leaf=-0.00340969
			12:leaf=0.0127759
		6:[f3<0.698446] yes=13,no=14,missing=13
			13:leaf=-0.0196187
			14:leaf=-0.00866917
booster[74]:
0:[f21<-0.0465033] yes=1,no=2,missing=1
	1:[f2<-1.12007] yes=3,no=4,missing=3
		3:[f17<-0.145753] yes=7,no=8,missing=7
			7:leaf=-0.0191026
			8:leaf=-0.00792693
		4:[f3<1.45297] yes=9,no=10,missing=9
			9:leaf=-0.024387
			10:leaf=-0.0164437
	2:[f2<-0.307491] yes=5,no=6,missing=5
		5:[f22<0.233904] yes=11,no=12,missing=11
			11:leaf=-0.0048814
			12:leaf=0.0107847
		6:[f3<0.537908] yes=13,no=14,missing=13
			13:leaf=-0.0221644
			14:leaf=-0.0126672
booster[75]:
0:[f18<0.0541038] yes=1,no=2,missing=1
	1:[f2<-1.00926] yes=3,no=4,missing=3
		3:[f21<-0.083601] yes=7,no=8,missing=7
			7:leaf=-0.0196866
			8:leaf=-0.00709398
		4:[f3<1.82221] yes=9,no=10,missing=9
			9:leaf=-0.0241956
			10:leaf=-0.0138806
	2:[f2<-0.270556] yes=5,no=6,missing=5
		5:[f22<0.233904] yes=11,no=12,missing=11
			11:leaf=-0.00491912
			12:leaf=0.0104728
		6:[f22<0.233904] yes=13,no=14,missing=13
			13:leaf=-0.0204759
			14:leaf=-0.0072575
booster[76]:
0:[f18<0.0541038] yes=1,no=2,missing=1
	1:[f2<-1.30474] yes=3,no=4,missing=3
		3:[f21<-0.083601] yes=7,no=8,missing=7
			7:leaf=-0.0174593
			8:leaf=-0.00393995
		4:[f2<-0.307491] yes=9,no=10,missing=9
			9:leaf=-0.020062
			10:leaf=-0.0246688
	2:[f2<-0.344426] yes=5,no=6,missing=5
		5:[f26<0.710185] yes=11,no=12,missing=11
			11:leaf=-0.00497864
			12:leaf=0.0118008
		6:[f2<0.505084] yes=13,no=14,missing=13
			13:leaf=-0.0141397
			14:leaf=-0.0221725
booster[77]:
0:[f18<0.0541038] yes=1,no=2,missing=1
	1:[f2<-1.30474] yes=3,no=4,missing=3
		3:[f16<-0.245367] yes=7,no=8,missing=7
			7:leaf=-0.0161712
			8:leaf=-0.00174936
		4:[f2<-0.529102] yes=9,no=10,missing=9
			9:leaf=-0.0195409
			10:leaf=-0.0244189
	2:[f2<-0.307491] yes=5,no=6,missing=5
		5:[f23<-0.0275324] yes=11,no=12,missing=11
			11:leaf=-0.004518
			12:leaf=0.0131041
		6:[f3<1.24427] yes=13,no=14,missing=13
			13:leaf=-0.0201554
			14:leaf=-0.0105987
booster[78]:
0:[f2<-1.34168] yes=1,no=2,missing=1
	1:[f15<-0.177033] yes=3,no=4,missing=3
		3:[f21<-0.083601] yes=7,no=8,missing=7
			7:leaf=-0.018526
			8:leaf=-0.00658025
		4:[f2<-1.52635] yes=9,no=10,missing=9
			9:leaf=0.0126274
			10:leaf=-0.000124424
	2:[f21<-0.0465033] yes=5,no=6,missing=5
		5:[f2<-0.270556] yes=11,no=12,missing=11
			11:leaf=-0.0201174
			12:leaf=-0.0245897
		6:[f2<-0.0858797] yes=13,no=14,missing=13
			13:leaf=-0.00718016
			14:leaf=-0.0200779
booster[79]:
0:[f21<-0.0465033] yes=1,no=2,missing=1
	1:[f2<-1.37861] yes=3,no=4,missing=3
		3:[f34<1.047] yes=7,no=8,missing=7
			7:leaf=-0.0132565
			8:leaf=0.00599074
		4:[f2<-0.233621] yes=9,no=10,missing=9
			9:leaf=-0.0199541
			10:leaf=-0.0245505
	2:[f2<-0.529102] yes=5,no=6,missing=5
		5:[f22<0.233904] yes=11,no=12,missing=11
			11:leaf=-0.00378842
			12:leaf=0.0113068
		6:[f23<-0.0272891] yes=13,no=14,missing=13
			13:leaf=-0.0185491
			14:leaf=-8.05495e-05
booster[80]:
0:[f2<-1.12007] yes=1,no=2,missing=1
	1:[f15<-0.133338] yes=3,no=4,missing=3
		3:[f26<0.710185] yes=7,no=8,missing=7
			7:leaf=-0.0159725
			8:leaf=0.00895056
		4:[f19<0.514323] yes=9,no=10,missing=9
			9:leaf=-0.00175986
			10:leaf=0.0143625
	2:[f18<0.0541038] yes=5,no=6,missing=5
		5:[f3<0.794768] yes=11,no=12,missing=11
			11:leaf=-0.0238869
			12:leaf=-0.0166527
		6:[f23<-0.0271473] yes=13,no=14,missing=13
			13:leaf=-0.0148805
			14:leaf=0.00465657
booster[81]:
0:[f2<-1.37861] yes=1,no=2,missing=1
	1:[f15<-0.305603] yes=3,no=4,missing=3
		3:[f34<1.047] yes=7,no=8,missing=7
			7:leaf=-0.0166392
			8:leaf=0.000804253
		4:[f22<0.233904] yes=9,no=10,missing=9
			9:leaf=0.00102779
			10:leaf=0.0147166
	2:[f21<-0.0465033] yes=5,no=6,missing=5
		5:[f2<-0.196685] yes=11,no=12,missing=11
			11:leaf=-0.0198235
			12:leaf=-0.0244308
		6:[f2<-0.0858797] yes=13,no=14,missing=13
			13:leaf=-0.00633575
			14:leaf=-0.0197276
booster[82]:
0:[f21<0.027692] yes=1,no=2,missing=1
	1:[f2<-0.824584] yes=3,no=4,missing=3
		3:[f34<1.047] yes=7,no=8,missing=7
			7:leaf=-0.0154897
			8:leaf=1.09995e-05
		4:[f3<0.537908] yes=9,no=10,missing=9
			9:leaf=-0.023856
			10:leaf=-0.0169742
	2:[f2<-0.0489445] yes=5,no=6,missing=5
		5:[f23<-0.0274382] yes=11,no=12,missing=11
			11:leaf=-0.00213962
			12:leaf=0.0120583
		6:[f2<0.652824] yes=13,no=14,missing=13
			13:leaf=-0.0120128
			14:leaf=-0.0217093
booster[83]:
0:[f18<0.0541038] yes=1,no=2,missing=1
	1:[f2<-1.0462] yes=3,no=4,missing=3
		3:[f21<-0.083601] yes=7,no=8,missing=7
			7:leaf=-0.0185361
			8:leaf=-0.00543586
		4:[f3<0.425532] yes=9,no=10,missing=9
			9:leaf=-0.0237221
			10:leaf=-0.0179644
	2:[f2<-1.157] yes=5,no=6,missing=5
		5:[f26<0.710185] yes=11,no=12,missing=11
			11:leaf=-0.00110279
			12:leaf=0.0142181
		6:[f26<0.710185] yes=13,no=14,missing=13
			13:leaf=-0.0141959
			14:leaf=0.00435486
booster[84]:
0:[f2<-0.824584] yes=1,no=2,missing=1
	1:[f16<-0.240261] yes=3,no=4,missing=3
		3:[f3<-0.634014] yes=7,no=8,missing=7
			7:leaf=-0.018646
			8:leaf=-0.00711788
		4:[f2<-1.45248] yes=9,no=10,missing=9
			9:leaf=0.0078153
			10:leaf=-0.00529678
	2:[f3<0.570016] yes=5,no=6,missing=5
		5:[f23<-0.0274492] yes=11,no=12,missing=11
			11:leaf=-0.0233382
			12:leaf=-0.00799437
		6:[f2<-0.0120093] yes=13,no=14,missing=13
			13:leaf=-0.00155454
			14:leaf=-0.0182674
booster[85]:
0:[f2<-0.861519] yes=1,no=2,missing=1
	1:[f15<-0.164824] yes=3,no=4,missing=3
		3:[f26<0.710185] yes=7,no=8,missing=7
			7:leaf=-0.0162352
			8:leaf=0.00926074
		4:[f22<0.233904] yes=9,no=10,missing=9
			9:leaf=-0.00328193
			10:leaf=0.0118896
	2:[f17<0.0725664] yes=5,no=6,missing=5
		5:[f3<0.409478] yes=11,no=12,missing=11
			11:leaf=-0.0238263
			12:leaf=-0.0178206
		6:[f3<0.907144] yes=13,no=14,missing=13
			13:leaf=-0.0167608
			14:leaf=-0.00379789
booster[86]:
0:[f18<0.0541038] yes=1,no=2,missing=1
	1:[f2<-1.0462] yes=3,no=4,missing=3
		3:[f21<-0.083601] yes=7,no=8,missing=7
			7:leaf=-0.0179763
			8:leaf=-0.00507121
		4:[f34<1.047] yes=9,no=10,missing=9
			9:leaf=-0.023262
			10:leaf=-0.0171798
	2:[f2<-0.639908] yes=5,no=6,missing=5
		5:[f22<0.233904] yes=11,no=12,missing=11
			11:leaf=-0.00307871
			12:leaf=0.0116669
		6:[f23<-0.027483] yes=13,no=14,missing=13
			13:leaf=-0.0170409
			14:leaf=0.00106687
booster[87]:
0:[f18<0.0541038] yes=1,no=2,missing=1
	1:[f2<-1.00926] yes=3,no=4,missing=3
		3:[f21<-0.083601] yes=7,no=8,missing=7
			7:leaf=-0.0176822
			8:leaf=-0.00545413
		4:[f23<-0.026721] yes=9,no=10,missing=9
			9:leaf=-0.0228865
			10:leaf=0.00179133
	2:[f2<-0.307491] yes=5,no=6,missing=5
		5:[f26<0.710185] yes=11,no=12,missing=11
			11:leaf=-0.00381416
			12:leaf=0.0116665
		6:[f23<-0.027483] yes=13,no=14,missing=13
			13:leaf=-0.0176879
			14:leaf=-0.00163059
booster[88]:
0:[f21<-0.0465033] yes=1,no=2,missing=1
	1:[f2<-0.566037] yes=3,no=4,missing=3
		3:[f3<0.409478] yes=7,no=8,missing=7
			7:leaf=-0.0165023
			8:leaf=-4.35724e-05
		4:[f34<1.047] yes=9,no=10,missing=9
			9:leaf=-0.0239759
			10:leaf=-0.0183195
	2:[f2<-0.0858797] yes=5,no=6,missing=5
		5:[f26<0.710185] yes=11,no=12,missing=11
			11:leaf=-0.0034239
			12:leaf=0.0122029
		6:[f3<0.505801] yes=13,no=14,missing=13
			13:leaf=-0.0209
			14:leaf=-0.0107831
booster[89]:
0:[f18<0.0541038] yes=1,no=2,missing=1
	1:[f2<-1.00926] yes=3,no=4,missing=3
		3:[f21<-0.083601] yes=7,no=8,missing=7
			7:leaf=-0.0168921
			8:leaf=-0.00534506
		4:[f3<0.409478] yes=9,no=10,missing=9
			9:leaf=-0.0231026
			10:leaf=-0.0170205
	2:[f2<-1.41555] yes=5,no=6,missing=5
		5:[f15<0.268008] yes=11,no=12,missing=11
			11:leaf=-0.000456847
			12:leaf=0.0119898
		6:[f26<0.710185] yes=13,no=14,missing=13
			13:leaf=-0.0111162
			14:leaf=0.00728028
booster[90]:
0:[f21<-0.0465033] yes=1,no=2,missing=1
	1:[f2<-1.34168] yes=3,no=4,missing=3
		3:[f15<-0.132811] yes=7,no=8,missing=7
			7:leaf=-0.014169
			8:leaf=0.000224224
		4:[f2<-0.15975] yes=9,no=10,missing=9
			9:leaf=-0.0183289
			10:leaf=-0.0235258
	2:[f2<-0.233621] yes=5,no=6,missing=5
		5:[f19<0.514323] yes=11,no=12,missing=11
			11:leaf=-0.00291481
			12:leaf=0.0117074
		6:[f3<1.91853] yes=13,no=14,missing=13
			13:leaf=-0.0184395
			14:leaf=-0.00498329
booster[91]:
0:[f2<-1.0462] yes=1,no=2,missing=1
	1:[f15<-0.133121] yes=3,no=4,missing=3
		3:[f34<1.047] yes=7,no=8,missing=7
			7:leaf=-0.0152215
			8:leaf=0.0023598
		4:[f2<-1.52635] yes=9,no=10,missing=9
			9:leaf=0.0141334
			10:leaf=-0.00188677
	2:[f18<0.0541038] yes=5,no=6,missing=5
		5:[f21<-0.083601] yes=11,no=12,missing=11
			11:leaf=-0.0234999
			12:leaf=-0.0187824
		6:[f3<1.88642] yes=13,no=14,missing=13
			13:leaf=-0.0133886
			14:leaf=0.00403473
booster[92]:
0:[f2<-0.639908] yes=1,no=2,missing=1
	1:[f21<-0.0465033] yes=3,no=4,missing=3
		3:[f26<0.710185] yes=7,no=8,missing=7
			7:leaf=-0.0147995
			8:leaf=0.0142646
		4:[f34<1.047] yes=9,no=10,missing=9
			9:leaf=-0.00268568
			10:leaf=0.0110677
	2:[f19<0.514323] yes=5,no=6,missing=5
		5:[f3<1.40481] yes=11,no=12,missing=11
			11:leaf=-0.0223846
			12:leaf=-0.0103507
		6:[f3<1.05163] yes=13,no=14,missing=13
			13:leaf=-0.00374449
			14:leaf=0.021081
booster[93]:
0:[f18<0.0541038] yes=1,no=2,missing=1
	1:[f2<-0.787649] yes=3,no=4,missing=3
		3:[f21<-0.083601] yes=7,no=8,missing=7
			7:leaf=-0.0176602
			8:leaf=-0.004708
		4:[f3<0.441586] yes=9,no=10,missing=9
			9:leaf=-0.0230211
			10:leaf=-0.0162196
	2:[f2<-0.0120093] yes=5,no=6,missing=5
		5:[f23<-0.0275123] yes=11,no=12,missing=11
			11:leaf=-0.00332561
			12:leaf=0.011975
		6:[f3<1.93458] yes=13,no=14,missing=13
			13:leaf=-0.0185655
			14:leaf=-0.00613896
booster[94]:
0:[f2<-0.676843] yes=1,no=2,missing=1
	1:[f21<-0.083601] yes=3,no=4,missing=3
		3:[f34<1.047] yes=7,no=8,missing=7
			7:leaf=-0.0169237
			8:leaf=-0.00216667
		4:[f22<0.233904] yes=9,no=10,missing=9
			9:leaf=-0.00338784
			10:leaf=0.0127207
	2:[f23<-0.0274904] yes=5,no=6,missing=5
		5:[f3<0.698446] yes=11,no=12,missing=11
			11:leaf=-0.0223423
			12:leaf=-0.0128593
		6:[f3<0.842929] yes=13,no=14,missing=13
			13:leaf=-0.00255082
			14:leaf=0.0165798
booster[95]:
0:[f2<-0.787649] yes=1,no=2,missing=1
	1:[f21<-0.083601] yes=3,no=4,missing=3
		3:[f34<1.047] yes=7,no=8,missing=7
			7:leaf=-0.016691
			8:leaf=-0.000818572
		4:[f26<0.710185] yes=9,no=10,missing=9
			9:leaf=-0.00249094
			10:leaf=0.0130777
	2:[f18<0.0541038] yes=5,no=6,missing=5
		5:[f3<0.409478] yes=11,no=12,missing=11
			11:leaf=-0.0229619
			12:leaf=-0.0163298
		6:[f3<0.553962] yes=13,no=14,missing=13
			13:leaf=-0.0159963
			14:leaf=-0.00459729
booster[96]:
0:[f18<0.0541038] yes=1,no=2,missing=1
	1:[f2<-0.824584] yes=3,no=4,missing=3
		3:[f21<-0.083601] yes=7,no=8,missing=7
			7:leaf=-0.0166128
			8:leaf=-0.00462792
		4:[f3<1.48508] yes=9,no=10,missing=9
			9:leaf=-0.0223866
			10:leaf=-0.0106664
	2:[f23<-0.0274876] yes=5,no=6,missing=5
		5:[f2<-0.15975] yes=11,no=12,missing=11
			11:leaf=-0.00313598
			12:leaf=-0.0170872
		6:[f19<1.63821] yes=13,no=14,missing=13
			13:leaf=0.00670165
			14:leaf=0.0220602
booster[97]:
0:[f21<-0.0465033] yes=1,no=2,missing=1
	1:[f2<-1.30474] yes=3,no=4,missing=3
		3:[f34<1.047] yes=7,no=8,missing=7
			7:leaf=-0.0109937
			8:leaf=0.0058486
		4:[f2<0.0249259] yes=9,no=10,missing=9
			9:leaf=-0.0176718
			10:leaf=-0.0234548
	2:[f2<-0.0120093] yes=5,no=6,missing=5
		5:[f26<0.710185] yes=11,no=12,missing=11
			11:leaf=-0.00252435
			12:leaf=0.0123116
		6:[f3<2.12723] yes=13,no=14,missing=13
			13:leaf=-0.0185088
			14:leaf=-0.00202318
booster[98]:
0:[f21<-0.0465033] yes=1,no=2,missing=1
	1:[f2<-1.0462] yes=3,no=4,missing=3
		3:[f17<-0.145753] yes=7,no=8,missing=7
			7:leaf=-0.0148112
			8:leaf=-0.00414264
		4:[f3<1.59746] yes=9,no=10,missing=9
			9:leaf=-0.0218749
			10:leaf=-0.00963986
	2:[f2<-0.0120093] yes=5,no=6,missing=5
		5:[f22<0.233904] yes=11,no=12,missing=11
			11:leaf=-0.00298143
			12:leaf=0.0107893
		6:[f3<1.82221] yes=13,no=14,missing=13
			13:leaf=-0.0185665
			14:leaf=-0.00438659
booster[99]:
0:[f2<-0.529102] yes=1,no=2,missing=1
	1:[f16<-0.239778] yes=3,no=4,missing=3
		3:[f3<-0.0400262] yes=7,no=8,missing=7
			7:leaf=-0.0159345
			8:leaf=-0.00298935
		4:[f2<-1.45248] yes=9,no=10,missing=9
			9:leaf=0.00898249
			10:leaf=-0.00461608
	2:[f17<-0.145753] yes=5,no=6,missing=5
		5:[f3<0.409478] yes=11,no=12,missing=11
			11:leaf=-0.023489
			12:leaf=-0.0179079
		6:[f23<-0.027483] yes=13,no=14,missing=13
			13:leaf=-0.016491
			14:leaf=0.00185337